digraph Tree {
node [shape=box, style="filled, rounded", color="black", fontname=helvetica] ;
edge [fontname=helvetica] ;
0 [label=<sepal_length &le; 6.15<br/>entropy = 1.0<br/>samples = 100<br/>value = [50, 50]<br/>class = versicolour>, fillcolor="#e5813900"] ;
1 [label=<sepal_length &le; 5.75<br/>entropy = 0.8024<br/>samples = 45<br/>value = [34, 11]<br/>class = versicolour>, fillcolor="#e58139ac"] ;
0 -> 1 [labeldistance=2.5, labelangle=45, headlabel="True"] ;
2 [label=<entropy = 0.5436<br/>samples = 24<br/>value = [21, 3]<br/>class = versicolour>, fillcolor="#e58139db"] ;
1 -> 2 ;
3 [label=<entropy = 0.9587<br/>samples = 21<br/>value = [13, 8]<br/>class = versicolour>, fillcolor="#e5813962"] ;
1 -> 3 ;
4 [label=<sepal_length &le; 7.05<br/>entropy = 0.8699<br/>samples = 55<br/>value = [16, 39]<br/>class = virginica>, fillcolor="#399de596"] ;
0 -> 4 [labeldistance=2.5, labelangle=-45, headlabel="False"] ;
5 [label=<entropy = 0.9523<br/>samples = 43<br/>value = [16, 27]<br/>class = virginica>, fillcolor="#399de568"] ;
4 -> 5 ;
6 [label=<entropy = 0.0<br/>samples = 12<br/>value = [0, 12]<br/>class = virginica>, fillcolor="#399de5ff"] ;
4 -> 6 ;
}